<?xml version="1.0"?>
<opencv_storage>
<stage8>
  <maxWeakCount>5</maxWeakCount>
  <stageThreshold>-1.0724389553070068e+000</stageThreshold>
  <weakClassifiers>
    <_>
      <internalNodes>
        0 -1 4162 686824445 -1994844078 1359282533 -2063308535
        -513689393 -1408663551 -1987527802 -1081144611</internalNodes>
      <leafValues>
        -7.2450804710388184e-001 4.6485260128974915e-001</leafValues></_>
    <_>
      <internalNodes>
        0 -1 7628 83956168 -1991573493 268436098 -460783613 -1652504533
        683741320 -1156873080 -1514438486</internalNodes>
      <leafValues>
        -6.7312622070312500e-001 5.1398384571075439e-001</leafValues></_>
    <_>
      <internalNodes>
        0 -1 20808 -258190815 1359052851 -1064812299 -934319854
        -2130006642 919175168 -2104692069 -1296356758</internalNodes>
      <leafValues>
        -5.9093141555786133e-001 6.3061749935150146e-001</leafValues></_>
    <_>
      <internalNodes>
        0 -1 32364 -200268276 1082249411 1073774850 -2142975932
        134414369 -1300103152 -519943400 -341105960</internalNodes>
      <leafValues>
        -7.0458680391311646e-001 5.4366278648376465e-001</leafValues></_>
    <_>
      <internalNodes>
        0 -1 2139 -1050385962 1090535553 -1862254452 -1848494014
        -1073643280 150995019 -1064828872 1069287994</internalNodes>
      <leafValues>
        -8.1464612483978271e-001 4.9628520011901855e-001</leafValues></_></weakClassifiers></stage8>
</opencv_storage>
