<?xml version="1.0"?>
<opencv_storage>
<stage19>
  <maxWeakCount>5</maxWeakCount>
  <stageThreshold>-1.0180559158325195e+000</stageThreshold>
  <weakClassifiers>
    <_>
      <internalNodes>
        0 -1 9378 -1592143541 -667824053 -2130554207 -1416298489
        -1474248519 -1300054015 -342760830 -233807639</internalNodes>
      <leafValues>
        -6.2776023149490356e-001 5.4098361730575562e-001</leafValues></_>
    <_>
      <internalNodes>
        0 -1 33172 -1285012859 -989732591 -1862085613 -117317560
        -1072660407 304268416 -662502782 -1478810745</internalNodes>
      <leafValues>
        -6.1724740266799927e-001 5.4079246520996094e-001</leafValues></_>
    <_>
      <internalNodes>
        0 -1 1673 282317235 1157644547 -666730279 -787382181 1076363302
        -1744764792 1489125664 -527015675</internalNodes>
      <leafValues>
        -7.0450538396835327e-001 4.5992323756217957e-001</leafValues></_>
    <_>
      <internalNodes>
        0 -1 7021 -468286476 739078147 1678360881 -2142142455 -402653182
        2059608610 -1844838269 -1894076211</internalNodes>
      <leafValues>
        -7.0935678482055664e-001 4.7380393743515015e-001</leafValues></_>
    <_>
      <internalNodes>
        0 -1 28487 1342513500 -2096758253 73435268 -956223355 1644253271
        -1275068277 -2138601461 328405607</internalNodes>
      <leafValues>
        -6.8596982955932617e-001 5.0487166643142700e-001</leafValues></_></weakClassifiers></stage19>
</opencv_storage>
